digraph Tree {
node [shape=box] ;
0 [label="X[0] <= 75.0\ngini = 0.392\nsamples = 332\nvalue = [243, 89]"] ;
1 [label="X[0] <= 35.0\ngini = 0.346\nsamples = 18\nvalue = [4, 14]"] ;
0 -> 1 [labeldistance=2.5, labelangle=45, headlabel="True"] ;
2 [label="gini = 0.49\nsamples = 7\nvalue = [4, 3]"] ;
1 -> 2 ;
3 [label="gini = 0.0\nsamples = 11\nvalue = [0, 11]"] ;
1 -> 3 ;
4 [label="X[0] <= 315.0\ngini = 0.364\nsamples = 314\nvalue = [239, 75]"] ;
0 -> 4 [labeldistance=2.5, labelangle=-45, headlabel="False"] ;
5 [label="X[1] <= 235.0\ngini = 0.473\nsamples = 65\nvalue = [40, 25]"] ;
4 -> 5 ;
6 [label="X[0] <= 240.0\ngini = 0.393\nsamples = 52\nvalue = [38, 14]"] ;
5 -> 6 ;
7 [label="X[1] <= 75.0\ngini = 0.444\nsamples = 42\nvalue = [28, 14]"] ;
6 -> 7 ;
8 [label="gini = 0.124\nsamples = 15\nvalue = [14, 1]"] ;
7 -> 8 ;
9 [label="gini = 0.499\nsamples = 27\nvalue = [14, 13]"] ;
7 -> 9 ;
10 [label="gini = 0.0\nsamples = 10\nvalue = [10, 0]"] ;
6 -> 10 ;
11 [label="X[0] <= 285.0\ngini = 0.26\nsamples = 13\nvalue = [2, 11]"] ;
5 -> 11 ;
12 [label="gini = 0.0\nsamples = 8\nvalue = [0, 8]"] ;
11 -> 12 ;
13 [label="gini = 0.48\nsamples = 5\nvalue = [2, 3]"] ;
11 -> 13 ;
14 [label="X[0] <= 885.0\ngini = 0.321\nsamples = 249\nvalue = [199, 50]"] ;
4 -> 14 ;
15 [label="X[1] <= 605.0\ngini = 0.369\nsamples = 160\nvalue = [121, 39]"] ;
14 -> 15 ;
16 [label="X[1] <= 275.0\ngini = 0.245\nsamples = 84\nvalue = [72, 12]"] ;
15 -> 16 ;
17 [label="gini = 0.469\nsamples = 8\nvalue = [5, 3]"] ;
16 -> 17 ;
18 [label="gini = 0.209\nsamples = 76\nvalue = [67, 9]"] ;
16 -> 18 ;
19 [label="X[0] <= 685.0\ngini = 0.458\nsamples = 76\nvalue = [49, 27]"] ;
15 -> 19 ;
20 [label="gini = 0.43\nsamples = 16\nvalue = [5, 11]"] ;
19 -> 20 ;
21 [label="gini = 0.391\nsamples = 60\nvalue = [44, 16]"] ;
19 -> 21 ;
22 [label="X[1] <= 905.0\ngini = 0.217\nsamples = 89\nvalue = [78, 11]"] ;
14 -> 22 ;
23 [label="gini = 0.0\nsamples = 11\nvalue = [11, 0]"] ;
22 -> 23 ;
24 [label="X[0] <= 1005.0\ngini = 0.242\nsamples = 78\nvalue = [67, 11]"] ;
22 -> 24 ;
25 [label="gini = 0.388\nsamples = 19\nvalue = [14, 5]"] ;
24 -> 25 ;
26 [label="gini = 0.183\nsamples = 59\nvalue = [53, 6]"] ;
24 -> 26 ;
}